{
  "ip": 0,
  "fr": 60,
  "v": "5.1.7",
  "layers": [
    {
      "ty": 4,
      "nm": "deposit-box",
      "ip": 0,
      "st": 0,
      "ind": 5,
      "hix": 3,
      "ks": {
        "o": {
          "a": 0,
          "k": 100
        },
        "or": {
          "a": 0,
          "k": [
            0,
            0,
            0
          ]
        },
        "a": {
          "a": 0,
          "k": [
            22,
            3,
            0
          ]
        },
        "p": {
          "s": true,
          "x": {
            "a": 0,
            "k": 71
          },
          "y": {
            "a": 0,
            "k": 145
          }
        },
        "rx": {
          "a": 0,
          "k": 0
        },
        "ry": {
          "a": 0,
          "k": 0
        },
        "rz": {
          "a": 0,
          "k": 0
        },
        "s": {
          "a": 0,
          "k": [
            100,
            100,
            100
          ]
        }
      },
      "shapes": [
        {
          "ty": "gr",
          "it": [
            {
              "ty": "rc",
              "r": {
                "a": 0,
                "k": 2
              },
              "s": {
                "a": 0,
                "k": [
                  43.9994379,
                  4.14112357
                ]
              },
              "p": {
                "a": 0,
                "k": [
                  21.99971895,
                  2.070561785
                ]
              }
            },
            {
              "ty": "st",
              "o": {
                "a": 0,
                "k": 0
              },
              "w": {
                "a": 0,
                "k": 0
              },
              "c": {
                "a": 0,
                "k": [
                  0,
                  0,
                  0,
                  0
                ]
              },
              "lc": 3,
              "lj": 1
            },
            {
              "ty": "fl",
              "o": {
                "a": 0,
                "k": 100
              },
              "r": 2,
              "c": {
                "a": 0,
                "k": [
                  0.20392156862745098,
                  0.24313725490196078,
                  0.3686274509803922,
                  1
                ]
              }
            },
            {
              "ty": "tr",
              "o": {
                "a": 0,
                "k": 100
              },
              "a": {
                "a": 0,
                "k": [
                  0,
                  0
                ]
              },
              "s": {
                "a": 0,
                "k": [
                  100,
                  100
                ]
              },
              "p": {
                "a": 0,
                "k": [
                  0,
                  0
                ]
              },
              "r": {
                "a": 0,
                "k": 0
              }
            }
          ]
        }
      ],
      "op": 36
    },
    {
      "ty": 4,
      "nm": "coin2",
      "ip": 0,
      "st": 0,
      "ind": 2,
      "hix": 2,
      "ks": {
        "o": {
          "a": 0,
          "k": 100
        },
        "or": {
          "a": 0,
          "k": [
            0,
            0,
            0
          ]
        },
        "a": {
          "a": 0,
          "k": [
            23,
            23,
            0
          ]
        },
        "p": {
          "s": true,
          "x": {
            "a": 1,
            "k": [
              {
                "t": 0,
                "s": [
                  71
                ],
                "e": [
                  71
                ],
                "i": {
                  "x": [
                    1
                  ],
                  "y": [
                    1
                  ]
                },
                "o": {
                  "x": [
                    0
                  ],
                  "y": [
                    0
                  ]
                }
              },
              {
                "t": 12
              }
            ]
          },
          "y": {
            "a": 1,
            "k": [
              {
                "t": 0,
                "s": [
                  43
                ],
                "e": [
                  43
                ],
                "i": {
                  "x": [
                    1
                  ],
                  "y": [
                    1
                  ]
                },
                "o": {
                  "x": [
                    0
                  ],
                  "y": [
                    0
                  ]
                }
              },
              {
                "t": 1,
                "s": [
                  43
                ],
                "e": [
                  165
                ],
                "i": {
                  "x": [
                    0.735
                  ],
                  "y": [
                    0.045
                  ]
                },
                "o": {
                  "x": [
                    0.6
                  ],
                  "y": [
                    -0.28
                  ]
                }
              },
              {
                "t": 36
              }
            ]
          }
        },
        "rx": {
          "a": 0,
          "k": 0
        },
        "ry": {
          "a": 0,
          "k": 0
        },
        "rz": {
          "a": 0,
          "k": 0
        },
        "s": {
          "a": 0,
          "k": [
            100,
            100,
            100
          ]
        }
      },
      "shapes": [
        {
          "ty": "gr",
          "it": [
            {
              "ty": "sh",
              "ks": {
                "a": 0,
                "k": {
                  "c": true,
                  "v": [
                    [
                      11.9071625,
                      23.6051204
                    ],
                    [
                      11.3218217,
                      24.9172457
                    ],
                    [
                      10.0234294,
                      25.4693421
                    ],
                    [
                      8.72148959,
                      24.8993205
                    ],
                    [
                      8.17871905,
                      23.6051204
                    ],
                    [
                      8.70375199,
                      22.2714849
                    ],
                    [
                      10.0234294,
                      21.7408987
                    ],
                    [
                      11.3608444,
                      22.2929952
                    ]
                  ],
                  "i": [
                    [
                      0,
                      -0.5090758999999991
                    ],
                    [
                      0.3902272,
                      -0.3692592999999995
                    ],
                    [
                      0.4753677000000014,
                      0
                    ],
                    [
                      0.3653945500000013,
                      0.38001439999999675
                    ],
                    [
                      0,
                      0.4803955999999978
                    ],
                    [
                      -0.3476569500000011,
                      0.35491910000000004
                    ],
                    [
                      -0.5285804699999996,
                      0
                    ],
                    [
                      -0.3653946000000001,
                      -0.3692592999999995
                    ]
                  ],
                  "o": [
                    [
                      0,
                      0.5090760000000003
                    ],
                    [
                      -0.3902272,
                      0.3692592999999995
                    ],
                    [
                      -0.50374783,
                      0
                    ],
                    [
                      -0.36184702999999985,
                      -0.3800144000000003
                    ],
                    [
                      0,
                      -0.5341711999999994
                    ],
                    [
                      0.3547519899999987,
                      -0.35133410000000254
                    ],
                    [
                      0.5250329000000011,
                      0
                    ],
                    [
                      0.3618470000000009,
                      0.3692592999999995
                    ]
                  ]
                }
              }
            },
            {
              "ty": "sh",
              "ks": {
                "a": 0,
                "k": {
                  "c": true,
                  "v": [
                    [
                      35.8734549,
                      15.2457859
                    ],
                    [
                      36.1072206,
                      16.8834995
                    ],
                    [
                      33.5024023,
                      18.122581
                    ],
                    [
                      29.9391444,
                      20.5243396
                    ],
                    [
                      30.4968426,
                      20.7469092
                    ],
                    [
                      32.473833,
                      21.8099282
                    ],
                    [
                      32.2968389,
                      22.9427078
                    ],
                    [
                      30.7239294,
                      23.6967869
                    ],
                    [
                      28.8938775,
                      23.2317161
                    ],
                    [
                      27.5179991,
                      22.4211641
                    ],
                    [
                      22.5354491,
                      25.6833036
                    ],
                    [
                      20.4048413,
                      26.9688922
                    ],
                    [
                      17.2523432,
                      28.9487651
                    ],
                    [
                      15.7495633,
                      29.7028441
                    ],
                    [
                      12.4902009,
                      29.7825706
                    ],
                    [
                      11.758848,
                      28.852429
                    ],
                    [
                      12.4868614,
                      26.7529665
                    ],
                    [
                      15.9465945,
                      25.8228248
                    ],
                    [
                      19.6367538,
                      23.7432939
                    ],
                    [
                      24.8731066,
                      20.3748525
                    ],
                    [
                      23.3068761,
                      18.0960056
                    ],
                    [
                      23.764389,
                      17.2223368
                    ],
                    [
                      24.7996374,
                      16.7904854
                    ],
                    [
                      26.1354417,
                      17.3419265
                    ],
                    [
                      27.3243075,
                      18.5909738
                    ],
                    [
                      30.303151,
                      16.6310325
                    ],
                    [
                      32.3469316,
                      15.3354781
                    ],
                    [
                      34.5910828,
                      14.7009887
                    ]
                  ],
                  "i": [
                    [
                      -0.33395110000000017,
                      -0.33551540000000024
                    ],
                    [
                      0.46085250000000144,
                      -0.5746946000000008
                    ],
                    [
                      1.0018531999999993,
                      -0.5381533000000012
                    ],
                    [
                      0,
                      0
                    ],
                    [
                      -0.41409930000000017,
                      -0.10962390000000255
                    ],
                    [
                      -0.22374719999999826,
                      -0.7939424000000024
                    ],
                    [
                      0.20371020000000328,
                      -0.23917929999999998
                    ],
                    [
                      0.6411860000000011,
                      -0.06311679999999953
                    ],
                    [
                      0.637846500000002,
                      0.308939800000001
                    ],
                    [
                      0,
                      0
                    ],
                    [
                      1.502779799999999,
                      -0.9201757999999991
                    ],
                    [
                      0,
                      0
                    ],
                    [
                      0.7948035000000004,
                      -0.4816804999999995
                    ],
                    [
                      0.6578835999999999,
                      -0.25246699999999933
                    ],
                    [
                      1.035248300000001,
                      0.5348314000000016
                    ],
                    [
                      0.0868272999999995,
                      0.34215919999999755
                    ],
                    [
                      -1.098699100000001,
                      0.9168538000000019
                    ],
                    [
                      -1.5762491,
                      0.6909624000000001
                    ],
                    [
                      -0.9884952000000027,
                      0.6212017999999979
                    ],
                    [
                      0,
                      0
                    ],
                    [
                      -0.1402594999999991,
                      0.6776745999999996
                    ],
                    [
                      -0.24044470000000118,
                      0.23917929999999998
                    ],
                    [
                      -0.2905375000000028,
                      0.029897399999999408
                    ],
                    [
                      -0.4107599000000022,
                      -0.3886663999999982
                    ],
                    [
                      0,
                      0
                    ],
                    [
                      0,
                      0
                    ],
                    [
                      -0.5176241999999966,
                      0.3122619000000011
                    ],
                    [
                      -0.5844144,
                      0
                    ]
                  ],
                  "o": [
                    [
                      0.3706857000000028,
                      0.3720566000000005
                    ],
                    [
                      -0.7714268999999945,
                      0.963360999999999
                    ],
                    [
                      -1.275693099999998,
                      0.6809966000000003
                    ],
                    [
                      0,
                      0
                    ],
                    [
                      1.1087175999999985,
                      0.29233019999999854
                    ],
                    [
                      0.11354330000000346,
                      0.4119197999999997
                    ],
                    [
                      -0.4909080999999986,
                      0.5746946000000008
                    ],
                    [
                      -0.5276426999999977,
                      0.05315090000000211
                    ],
                    [
                      -0.5343216999999996,
                      -0.2591108999999996
                    ],
                    [
                      0,
                      0
                    ],
                    [
                      -0.5309822000000004,
                      0.3255496000000022
                    ],
                    [
                      0,
                      0
                    ],
                    [
                      -0.357327699999999,
                      0.2192475999999992
                    ],
                    [
                      -0.8749517999999998,
                      0.33883730000000156
                    ],
                    [
                      -0.37402520000000017,
                      -0.19599420000000123
                    ],
                    [
                      0,
                      0
                    ],
                    [
                      0.9250443999999991,
                      -0.767366899999999
                    ],
                    [
                      1.0018531999999993,
                      -0.4384952999999996
                    ],
                    [
                      1.2256003999999976,
                      -0.7673668000000013
                    ],
                    [
                      -0.7113158000000013,
                      -0.6809964999999991
                    ],
                    [
                      0.09016679999999866,
                      -0.44513919999999985
                    ],
                    [
                      0.35398819999999986,
                      -0.34880310000000136
                    ],
                    [
                      0.6411859999999976,
                      -0.06311680000000308
                    ],
                    [
                      0,
                      0
                    ],
                    [
                      0,
                      0
                    ],
                    [
                      0,
                      0
                    ],
                    [
                      1.0185506999999987,
                      -0.6145578
                    ],
                    [
                      0.39072269999999776,
                      0
                    ]
                  ]
                }
              }
            },
            {
              "ty": "st",
              "o": {
                "a": 0,
                "k": 0
              },
              "w": {
                "a": 0,
                "k": 0
              },
              "c": {
                "a": 0,
                "k": [
                  0,
                  0,
                  0,
                  0
                ]
              },
              "lc": 3,
              "lj": 1
            },
            {
              "ty": "fl",
              "o": {
                "a": 0,
                "k": 100
              },
              "r": 2,
              "c": {
                "a": 0,
                "k": [
                  0.20392156862745098,
                  0.24313725490196078,
                  0.3686274509803922,
                  1
                ]
              }
            },
            {
              "ty": "tr",
              "o": {
                "a": 0,
                "k": 100
              },
              "a": {
                "a": 0,
                "k": [
                  0,
                  0
                ]
              },
              "s": {
                "a": 0,
                "k": [
                  100,
                  100
                ]
              },
              "p": {
                "a": 0,
                "k": [
                  1,
                  1
                ]
              },
              "r": {
                "a": 0,
                "k": 0
              }
            }
          ]
        },
        {
          "ty": "gr",
          "it": [
            {
              "ty": "el",
              "p": {
                "a": 0,
                "k": [
                  21,
                  21
                ]
              },
              "s": {
                "a": 0,
                "k": [
                  43.999438,
                  43.999438
                ]
              }
            },
            {
              "ty": "st",
              "o": {
                "a": 0,
                "k": 100
              },
              "w": {
                "a": 0,
                "k": 1
              },
              "c": {
                "a": 0,
                "k": [
                  0.20392156862745098,
                  0.24313725490196078,
                  0.3686274509803922,
                  1
                ]
              },
              "lc": 3,
              "lj": 1
            },
            {
              "ty": "fl",
              "o": {
                "a": 0,
                "k": 100
              },
              "r": 2,
              "c": {
                "a": 0,
                "k": [
                  1,
                  1,
                  1,
                  1
                ]
              }
            },
            {
              "ty": "tr",
              "o": {
                "a": 0,
                "k": 100
              },
              "a": {
                "a": 0,
                "k": [
                  0,
                  0
                ]
              },
              "s": {
                "a": 0,
                "k": [
                  100,
                  100
                ]
              },
              "p": {
                "a": 0,
                "k": [
                  1,
                  1
                ]
              },
              "r": {
                "a": 0,
                "k": 0
              }
            }
          ]
        }
      ],
      "op": 36
    },
    {
      "ty": 4,
      "nm": "coin3",
      "ip": 0,
      "st": 0,
      "ind": 1,
      "hix": 1,
      "ks": {
        "o": {
          "a": 0,
          "k": 50
        },
        "or": {
          "a": 0,
          "k": [
            0,
            0,
            0
          ]
        },
        "a": {
          "a": 0,
          "k": [
            23,
            23,
            0
          ]
        },
        "p": {
          "s": true,
          "x": {
            "a": 0,
            "k": 71
          },
          "y": {
            "a": 0,
            "k": 43
          }
        },
        "rx": {
          "a": 0,
          "k": 0
        },
        "ry": {
          "a": 0,
          "k": 0
        },
        "rz": {
          "a": 0,
          "k": 0
        },
        "s": {
          "a": 0,
          "k": [
            100,
            100,
            100
          ]
        }
      },
      "shapes": [
        {
          "ty": "gr",
          "it": [
            {
              "ty": "sh",
              "ks": {
                "a": 0,
                "k": {
                  "c": true,
                  "v": [
                    [
                      11.9071625,
                      23.6051204
                    ],
                    [
                      11.3218217,
                      24.9172457
                    ],
                    [
                      10.0234294,
                      25.4693421
                    ],
                    [
                      8.72148959,
                      24.8993205
                    ],
                    [
                      8.17871905,
                      23.6051204
                    ],
                    [
                      8.70375199,
                      22.2714849
                    ],
                    [
                      10.0234294,
                      21.7408987
                    ],
                    [
                      11.3608444,
                      22.2929952
                    ]
                  ],
                  "i": [
                    [
                      0,
                      -0.5090758999999991
                    ],
                    [
                      0.3902272,
                      -0.3692592999999995
                    ],
                    [
                      0.4753677000000014,
                      0
                    ],
                    [
                      0.3653945500000013,
                      0.38001439999999675
                    ],
                    [
                      0,
                      0.4803955999999978
                    ],
                    [
                      -0.3476569500000011,
                      0.35491910000000004
                    ],
                    [
                      -0.5285804699999996,
                      0
                    ],
                    [
                      -0.3653946000000001,
                      -0.3692592999999995
                    ]
                  ],
                  "o": [
                    [
                      0,
                      0.5090760000000003
                    ],
                    [
                      -0.3902272,
                      0.3692592999999995
                    ],
                    [
                      -0.50374783,
                      0
                    ],
                    [
                      -0.36184702999999985,
                      -0.3800144000000003
                    ],
                    [
                      0,
                      -0.5341711999999994
                    ],
                    [
                      0.3547519899999987,
                      -0.35133410000000254
                    ],
                    [
                      0.5250329000000011,
                      0
                    ],
                    [
                      0.3618470000000009,
                      0.3692592999999995
                    ]
                  ]
                }
              }
            },
            {
              "ty": "sh",
              "ks": {
                "a": 0,
                "k": {
                  "c": true,
                  "v": [
                    [
                      35.8734549,
                      15.2457859
                    ],
                    [
                      36.1072206,
                      16.8834995
                    ],
                    [
                      33.5024023,
                      18.122581
                    ],
                    [
                      29.9391444,
                      20.5243396
                    ],
                    [
                      30.4968426,
                      20.7469092
                    ],
                    [
                      32.473833,
                      21.8099282
                    ],
                    [
                      32.2968389,
                      22.9427078
                    ],
                    [
                      30.7239294,
                      23.6967869
                    ],
                    [
                      28.8938775,
                      23.2317161
                    ],
                    [
                      27.5179991,
                      22.4211641
                    ],
                    [
                      22.5354491,
                      25.6833036
                    ],
                    [
                      20.4048413,
                      26.9688922
                    ],
                    [
                      17.2523432,
                      28.9487651
                    ],
                    [
                      15.7495633,
                      29.7028441
                    ],
                    [
                      12.4902009,
                      29.7825706
                    ],
                    [
                      11.758848,
                      28.852429
                    ],
                    [
                      12.4868614,
                      26.7529665
                    ],
                    [
                      15.9465945,
                      25.8228248
                    ],
                    [
                      19.6367538,
                      23.7432939
                    ],
                    [
                      24.8731066,
                      20.3748525
                    ],
                    [
                      23.3068761,
                      18.0960056
                    ],
                    [
                      23.764389,
                      17.2223368
                    ],
                    [
                      24.7996374,
                      16.7904854
                    ],
                    [
                      26.1354417,
                      17.3419265
                    ],
                    [
                      27.3243075,
                      18.5909738
                    ],
                    [
                      30.303151,
                      16.6310325
                    ],
                    [
                      32.3469316,
                      15.3354781
                    ],
                    [
                      34.5910828,
                      14.7009887
                    ]
                  ],
                  "i": [
                    [
                      -0.33395110000000017,
                      -0.33551540000000024
                    ],
                    [
                      0.46085250000000144,
                      -0.5746946000000008
                    ],
                    [
                      1.0018531999999993,
                      -0.5381533000000012
                    ],
                    [
                      0,
                      0
                    ],
                    [
                      -0.41409930000000017,
                      -0.10962390000000255
                    ],
                    [
                      -0.22374719999999826,
                      -0.7939424000000024
                    ],
                    [
                      0.20371020000000328,
                      -0.23917929999999998
                    ],
                    [
                      0.6411860000000011,
                      -0.06311679999999953
                    ],
                    [
                      0.637846500000002,
                      0.308939800000001
                    ],
                    [
                      0,
                      0
                    ],
                    [
                      1.502779799999999,
                      -0.9201757999999991
                    ],
                    [
                      0,
                      0
                    ],
                    [
                      0.7948035000000004,
                      -0.4816804999999995
                    ],
                    [
                      0.6578835999999999,
                      -0.25246699999999933
                    ],
                    [
                      1.035248300000001,
                      0.5348314000000016
                    ],
                    [
                      0.0868272999999995,
                      0.34215919999999755
                    ],
                    [
                      -1.098699100000001,
                      0.9168538000000019
                    ],
                    [
                      -1.5762491,
                      0.6909624000000001
                    ],
                    [
                      -0.9884952000000027,
                      0.6212017999999979
                    ],
                    [
                      0,
                      0
                    ],
                    [
                      -0.1402594999999991,
                      0.6776745999999996
                    ],
                    [
                      -0.24044470000000118,
                      0.23917929999999998
                    ],
                    [
                      -0.2905375000000028,
                      0.029897399999999408
                    ],
                    [
                      -0.4107599000000022,
                      -0.3886663999999982
                    ],
                    [
                      0,
                      0
                    ],
                    [
                      0,
                      0
                    ],
                    [
                      -0.5176241999999966,
                      0.3122619000000011
                    ],
                    [
                      -0.5844144,
                      0
                    ]
                  ],
                  "o": [
                    [
                      0.3706857000000028,
                      0.3720566000000005
                    ],
                    [
                      -0.7714268999999945,
                      0.963360999999999
                    ],
                    [
                      -1.275693099999998,
                      0.6809966000000003
                    ],
                    [
                      0,
                      0
                    ],
                    [
                      1.1087175999999985,
                      0.29233019999999854
                    ],
                    [
                      0.11354330000000346,
                      0.4119197999999997
                    ],
                    [
                      -0.4909080999999986,
                      0.5746946000000008
                    ],
                    [
                      -0.5276426999999977,
                      0.05315090000000211
                    ],
                    [
                      -0.5343216999999996,
                      -0.2591108999999996
                    ],
                    [
                      0,
                      0
                    ],
                    [
                      -0.5309822000000004,
                      0.3255496000000022
                    ],
                    [
                      0,
                      0
                    ],
                    [
                      -0.357327699999999,
                      0.2192475999999992
                    ],
                    [
                      -0.8749517999999998,
                      0.33883730000000156
                    ],
                    [
                      -0.37402520000000017,
                      -0.19599420000000123
                    ],
                    [
                      0,
                      0
                    ],
                    [
                      0.9250443999999991,
                      -0.767366899999999
                    ],
                    [
                      1.0018531999999993,
                      -0.4384952999999996
                    ],
                    [
                      1.2256003999999976,
                      -0.7673668000000013
                    ],
                    [
                      -0.7113158000000013,
                      -0.6809964999999991
                    ],
                    [
                      0.09016679999999866,
                      -0.44513919999999985
                    ],
                    [
                      0.35398819999999986,
                      -0.34880310000000136
                    ],
                    [
                      0.6411859999999976,
                      -0.06311680000000308
                    ],
                    [
                      0,
                      0
                    ],
                    [
                      0,
                      0
                    ],
                    [
                      0,
                      0
                    ],
                    [
                      1.0185506999999987,
                      -0.6145578
                    ],
                    [
                      0.39072269999999776,
                      0
                    ]
                  ]
                }
              }
            },
            {
              "ty": "st",
              "o": {
                "a": 0,
                "k": 0
              },
              "w": {
                "a": 0,
                "k": 0
              },
              "c": {
                "a": 0,
                "k": [
                  0,
                  0,
                  0,
                  0
                ]
              },
              "lc": 3,
              "lj": 1
            },
            {
              "ty": "fl",
              "o": {
                "a": 0,
                "k": 100
              },
              "r": 2,
              "c": {
                "a": 0,
                "k": [
                  0.20392156862745098,
                  0.24313725490196078,
                  0.3686274509803922,
                  1
                ]
              }
            },
            {
              "ty": "tr",
              "o": {
                "a": 0,
                "k": 100
              },
              "a": {
                "a": 0,
                "k": [
                  0,
                  0
                ]
              },
              "s": {
                "a": 0,
                "k": [
                  100,
                  100
                ]
              },
              "p": {
                "a": 0,
                "k": [
                  1,
                  1
                ]
              },
              "r": {
                "a": 0,
                "k": 0
              }
            }
          ]
        },
        {
          "ty": "gr",
          "it": [
            {
              "ty": "el",
              "p": {
                "a": 0,
                "k": [
                  21,
                  21
                ]
              },
              "s": {
                "a": 0,
                "k": [
                  43.999438,
                  43.999438
                ]
              }
            },
            {
              "ty": "st",
              "o": {
                "a": 0,
                "k": 100
              },
              "w": {
                "a": 0,
                "k": 1
              },
              "c": {
                "a": 0,
                "k": [
                  0.20392156862745098,
                  0.24313725490196078,
                  0.3686274509803922,
                  1
                ]
              },
              "lc": 3,
              "lj": 1
            },
            {
              "ty": "fl",
              "o": {
                "a": 0,
                "k": 100
              },
              "r": 2,
              "c": {
                "a": 0,
                "k": [
                  1,
                  1,
                  1,
                  1
                ]
              }
            },
            {
              "ty": "tr",
              "o": {
                "a": 0,
                "k": 100
              },
              "a": {
                "a": 0,
                "k": [
                  0,
                  0
                ]
              },
              "s": {
                "a": 0,
                "k": [
                  100,
                  100
                ]
              },
              "p": {
                "a": 0,
                "k": [
                  1,
                  1
                ]
              },
              "r": {
                "a": 0,
                "k": 0
              }
            }
          ]
        }
      ],
      "op": 36
    }
  ],
  "op": 36,
  "w": 145.521,
  "h": 145.754
}